<?xml version="1.0"?>
<opencv_storage>
<cascade>
  <stageType>BOOST</stageType>
  <featureType>HAAR</featureType>
  <height>50</height>
  <width>50</width>
  <stageParams>
    <boostType>GAB</boostType>
    <minHitRate>9.9500000476837158e-01</minHitRate>
    <maxFalseAlarm>5.0000000000000000e-01</maxFalseAlarm>
    <weightTrimRate>9.4999999999999996e-01</weightTrimRate>
    <maxDepth>1</maxDepth>
    <maxWeakCount>100</maxWeakCount></stageParams>
  <featureParams>
    <maxCatCount>0</maxCatCount>
    <featSize>1</featSize>
    <mode>BASIC</mode></featureParams>
  <stageNum>3</stageNum>
  <stages>
    <!-- stage 0 -->
    <_>
      <maxWeakCount>2</maxWeakCount>
      <stageThreshold>-2.3597390949726105e-01</stageThreshold>
      <weakClassifiers>
        <_>
          <internalNodes>
            0 -1 5 7.8331172699108720e-04</internalNodes>
          <leafValues>
            -9.1416311264038086e-01 7.6911544799804688e-01</leafValues></_>
        <_>
          <internalNodes>
            0 -1 1 -2.9830737039446831e-03</internalNodes>
          <leafValues>
            6.7818915843963623e-01 -8.8264572620391846e-01</leafValues></_></weakClassifiers></_>
    <!-- stage 1 -->
    <_>
      <maxWeakCount>3</maxWeakCount>
      <stageThreshold>-6.0448145866394043e-01</stageThreshold>
      <weakClassifiers>
        <_>
          <internalNodes>
            0 -1 3 8.6140225175768137e-04</internalNodes>
          <leafValues>
            -7.2180449962615967e-01 7.7602523565292358e-01</leafValues></_>
        <_>
          <internalNodes>
            0 -1 4 1.0280061978846788e-03</internalNodes>
          <leafValues>
            -5.5788731575012207e-01 8.4866315126419067e-01</leafValues></_>
        <_>
          <internalNodes>
            0 -1 7 5.3076910262461752e-05</internalNodes>
          <leafValues>
            -6.6307622194290161e-01 6.7521035671234131e-01</leafValues></_></weakClassifiers></_>
    <!-- stage 2 -->
    <_>
      <maxWeakCount>3</maxWeakCount>
      <stageThreshold>-3.6761349439620972e-01</stageThreshold>
      <weakClassifiers>
        <_>
          <internalNodes>
            0 -1 0 2.3768050596117973e-03</internalNodes>
          <leafValues>
            -5.1764708757400513e-01 8.5000002384185791e-01</leafValues></_>
        <_>
          <internalNodes>
            0 -1 6 4.2765233665704727e-03</internalNodes>
          <leafValues>
            -6.6033583879470825e-01 7.2395384311676025e-01</leafValues></_>
        <_>
          <internalNodes>
            0 -1 2 -7.2171230567619205e-04</internalNodes>
          <leafValues>
            8.1036943197250366e-01 -5.1375335454940796e-01</leafValues></_></weakClassifiers></_></stages>
  <features>
    <_>
      <rects>
        <_>
          1 12 4 25 -1.</_>
        <_>
          3 12 2 25 2.</_></rects>
      <tilted>0</tilted></_>
    <_>
      <rects>
        <_>
          5 22 14 10 -1.</_>
        <_>
          12 22 7 10 2.</_></rects>
      <tilted>0</tilted></_>
    <_>
      <rects>
        <_>
          6 23 4 3 -1.</_>
        <_>
          8 23 2 3 2.</_></rects>
      <tilted>0</tilted></_>
    <_>
      <rects>
        <_>
          23 37 4 8 -1.</_>
        <_>
          23 41 4 4 2.</_></rects>
      <tilted>0</tilted></_>
    <_>
      <rects>
        <_>
          24 2 4 6 -1.</_>
        <_>
          24 5 4 3 2.</_></rects>
      <tilted>0</tilted></_>
    <_>
      <rects>
        <_>
          35 25 12 2 -1.</_>
        <_>
          41 25 6 2 2.</_></rects>
      <tilted>0</tilted></_>
    <_>
      <rects>
        <_>
          38 22 8 6 -1.</_>
        <_>
          42 22 4 6 2.</_></rects>
      <tilted>0</tilted></_>
    <_>
      <rects>
        <_>
          44 25 3 2 -1.</_>
        <_>
          45 25 1 2 3.</_></rects>
      <tilted>0</tilted></_></features></cascade>
</opencv_storage>
