<?xml version="1.0"?>
<opencv_storage>
<cascade>
  <stageType>BOOST</stageType>
  <featureType>HAAR</featureType>
  <height>50</height>
  <width>50</width>
  <stageParams>
    <boostType>GAB</boostType>
    <minHitRate>9.9500000476837158e-01</minHitRate>
    <maxFalseAlarm>5.0000000000000000e-01</maxFalseAlarm>
    <weightTrimRate>9.4999999999999996e-01</weightTrimRate>
    <maxDepth>1</maxDepth>
    <maxWeakCount>100</maxWeakCount></stageParams>
  <featureParams>
    <maxCatCount>0</maxCatCount>
    <featSize>1</featSize>
    <mode>BASIC</mode></featureParams>
  <stageNum>2</stageNum>
  <stages>
    <!-- stage 0 -->
    <_>
      <maxWeakCount>2</maxWeakCount>
      <stageThreshold>-1.2953771650791168e-01</stageThreshold>
      <weakClassifiers>
        <_>
          <internalNodes>
            0 -1 2 -9.4344897661358118e-05</internalNodes>
          <leafValues>
            8.1707316637039185e-01 -9.6721309423446655e-01</leafValues></_>
        <_>
          <internalNodes>
            0 -1 1 9.1241821646690369e-03</internalNodes>
          <leafValues>
            -8.5187095403671265e-01 8.3767539262771606e-01</leafValues></_></weakClassifiers></_>
    <!-- stage 1 -->
    <_>
      <maxWeakCount>3</maxWeakCount>
      <stageThreshold>-7.5315785408020020e-01</stageThreshold>
      <weakClassifiers>
        <_>
          <internalNodes>
            0 -1 3 1.6994293779134750e-02</internalNodes>
          <leafValues>
            -6.7412137985229492e-01 8.7052810192108154e-01</leafValues></_>
        <_>
          <internalNodes>
            0 -1 0 2.4186131486203521e-04</internalNodes>
          <leafValues>
            -7.2267401218414307e-01 7.8272414207458496e-01</leafValues></_>
        <_>
          <internalNodes>
            0 -1 4 1.2638392217922956e-04</internalNodes>
          <leafValues>
            -6.9835531711578369e-01 6.4363753795623779e-01</leafValues></_></weakClassifiers></_></stages>
  <features>
    <_>
      <rects>
        <_>
          0 23 6 2 -1.</_>
        <_>
          3 23 3 2 2.</_></rects>
      <tilted>0</tilted></_>
    <_>
      <rects>
        <_>
          0 25 28 16 -1.</_>
        <_>
          0 25 14 8 2.</_>
        <_>
          14 33 14 8 2.</_></rects>
      <tilted>0</tilted></_>
    <_>
      <rects>
        <_>
          5 25 6 1 -1.</_>
        <_>
          8 25 3 1 2.</_></rects>
      <tilted>0</tilted></_>
    <_>
      <rects>
        <_>
          15 30 19 15 -1.</_>
        <_>
          15 35 19 5 3.</_></rects>
      <tilted>0</tilted></_>
    <_>
      <rects>
        <_>
          44 25 6 2 -1.</_>
        <_>
          46 25 2 2 3.</_></rects>
      <tilted>0</tilted></_></features></cascade>
</opencv_storage>
